,End of Period,AAPL,ABBV,ADBE,AMZN,BKNG,BUD,BX,C,CHH,CICHY,CS,CSCO,CVS,DAL,DAR,EXPE,FDP,H,HLT,HPQ,IHG,INTU,ISRG,JNJ,LLY,MAR,MET,MKC,MKL,MRK,NVDA,NWL,ORCL,PFE,PRU,PVH,SFM,TCOM,TMO,TMUS,TRIP,TXN,UL,UNH,V,VRTX,WFC,Date,risk
0,2015-03-31,3.46970399508007e-11,-1.4688871204129646e-12,2.6683755990783615e-12,0.29668052158383934,2.44184027626661e-12,8.874211331127534e-12,6.55153832208687e-11,-5.257775238087402e-13,5.125159061427279e-11,1.6714901615680523e-12,6.216964207312061e-12,1.6714469975244124e-12,9.807597122073142e-12,-1.1973485143145815e-12,-3.2679063872897223e-12,8.924709089295377e-12,3.886328055384073e-11,1.51717069974367e-12,3.2847915101556525e-11,-3.2609368581157402e-12,8.401019296786355e-13,5.9160754726569586e-12,4.3848245731759844e-14,3.148889953282248e-13,3.768740270613863e-12,3.869072734150333e-12,-7.319095250487785e-13,4.167803963265114e-12,1.8306567432055464e-11,2.3874843502618587e-12,4.0034146804393395e-12,3.7174755929012575e-12,6.980109281036994e-13,1.9215292571981166e-11,-1.7384882156814315e-12,-2.5469040720005226e-12,3.4944968946912275e-12,0.7033194776804285,4.302072141389047e-12,5.4475064641832633e-11,1.0523983471253503e-11,7.183119649233168e-12,4.620612220506393e-12,3.2947510890694644e-10,7.803598211877485e-13,-2.0100421168768056e-15,1.3918732032933918e-12,,1.0
1,2015-06-30,5.357996879814163e-12,6.092844708467134e-11,2.6805424088205013e-11,5.693547199697422e-11,2.297992078003127e-12,4.883130151858367e-12,2.0183878875442822e-11,1.9161292306370003e-11,-9.821574875445674e-12,6.231490610357054e-11,1.4014548671785093e-11,3.453867619984777e-12,7.032224558493788e-12,-5.647449030942923e-12,1.2502297502490934e-11,7.034502379444834e-11,3.203898054338121e-12,-1.707886103211919e-12,-4.37223643693964e-12,-6.112558545210419e-13,1.2022735807159575e-11,1.0853735702458825e-11,-1.3055562802010409e-12,6.493308865066876e-13,6.049050983560411e-11,-4.52544111645331e-12,3.596683429567131e-11,1.4889972596720468e-11,1.1479396794577861e-11,3.604101211279579e-12,-5.361805929407903e-13,1.4753021390744615e-11,-3.5870196036881136e-12,2.2948614753253984e-13,2.7089738174209046e-11,2.2679455468906357e-11,-1.3703940113500665e-11,0.27636780457413,-4.138879859246122e-13,0.7236321948318714,1.1756516282699982e-11,-6.343067312001018e-12,1.0176120502904214e-11,9.839638200337942e-12,8.130574194405699e-12,1.1291189499203385e-11,1.125895615784115e-11,,1.0
2,2015-09-30,2.7627591287122332e-12,-2.7403367709671267e-12,3.0413504910355964e-11,0.04424546160993937,7.413544099640874e-11,4.022329712597047e-12,-5.264360269603438e-12,5.0508771083732395e-12,3.97974361591333e-12,-8.072531632858702e-12,2.683187717796525e-12,1.59355717827698e-11,1.0124107252137435e-11,9.182157036397728e-11,-5.5500152080290725e-12,6.368548391111162e-11,3.857695276484128e-11,-1.2321482331715534e-12,-1.1850308621334695e-12,1.421357041301723e-12,1.5463042853664185e-12,2.3843601532739783e-12,1.5080147603944394e-11,1.8128437683115136e-11,2.952450178874793e-11,7.978341576781259e-12,-4.1926748891272033e-13,3.565583840037315e-11,3.091661631295531e-11,2.5738279107538813e-12,0.9557545377494979,1.7405308089869432e-11,5.553554480234871e-12,1.2408660831907445e-11,2.022401711709119e-12,4.344948806080437e-12,-2.8801619725576717e-12,2.25107414788901e-12,1.2447522662942444e-11,3.8735066249527745e-11,-8.172047841159653e-12,1.4976156292798382e-11,1.598311464142313e-11,1.4501441808499874e-11,4.078105282140929e-11,-1.6153999277221128e-12,7.901060393237357e-12,,1.0
3,2015-12-31,-6.882940365942251e-14,3.73667078788081e-13,8.180503011741988e-13,9.380585506438311e-11,8.817463116899468e-14,1.633218902465645e-12,-1.3409851894162073e-13,1.7373483784643565e-13,2.573668941529396e-13,1.0881239925721093e-13,-1.6480392654221826e-13,1.792168180435547e-13,1.321816168673859e-13,6.502051168011484e-13,-1.4430920346155928e-13,1.9583449587623523e-13,3.879368082216979e-15,2.646534725231348e-14,-1.413512903808482e-13,1.092827950540516e-13,5.644468929330532e-13,4.1369041459685344e-13,1.641274051472245e-12,5.824573114493786e-13,6.902183153117e-14,-2.6772525302669346e-14,1.3245116997471516e-13,2.343216846047871e-13,5.225157268052861e-13,3.5155095898541757e-13,0.22065204409184586,5.74876084292134e-13,5.926700603756554e-14,1.825301185096815e-13,3.1370487638259625e-13,-4.1721305497468217e-13,2.5965110872714288e-11,0.5843786377752329,1.073679915847821e-12,-2.4818651138349424e-14,0.19496931799880196,5.013318596975789e-13,3.0383653591827105e-13,1.5680415123431672e-13,5.811901354070016e-13,2.156972003726102e-12,2.9495059826244797e-13,,1.0
4,2016-03-31,6.0539758782099774e-12,2.1475658025579364e-12,2.5684835193523496e-12,-7.106762411231246e-13,3.9151014578067284e-12,3.555173770669399e-12,1.65352694198696e-12,-2.825968668286294e-12,8.482946853716754e-12,7.656136835399848e-13,-4.883430897670044e-12,7.435872812916874e-12,8.034077504395116e-12,1.7547190558924397e-12,7.904974971227216e-11,-1.0443378477424461e-12,1.1128935906259167e-11,5.529212843736339e-12,5.87324721845173e-12,6.2497688028042296e-12,8.216083810281309e-12,9.043053645637209e-12,1.2050866350006935e-11,8.171256553660747e-12,-1.2329518368861526e-12,7.54874116146584e-12,-2.1692267332480977e-13,2.6973195795256066e-11,4.0774560194387e-12,4.228757096162025e-12,8.43390171237948e-12,3.3315856309258333e-12,1.5317661645540438e-11,5.984047150937511e-13,-8.477237404408309e-13,0.9999999997125737,9.452819387175572e-12,1.3667974343362407e-12,3.507769467010752e-12,1.9533939794920523e-12,-3.0788627853570837e-12,7.4045440122141e-12,7.361156585706362e-12,1.252874758268028e-11,2.1977777290638873e-12,-5.037577239236181e-12,-5.446434766450478e-13,,1.0
5,2016-06-30,-2.8602396512770305e-12,1.1810734660184522e-11,3.743930658607727e-12,1.0534772738915263e-10,8.597068191813565e-13,8.177588841401954e-12,-2.8455062527624802e-12,3.2683582905991814e-12,-2.8206028616218354e-12,1.543290092939689e-11,-6.046060114162694e-12,3.171327637336445e-12,-1.2893399099968038e-12,-7.1234188420937985e-12,1.748236315376309e-11,1.92019217489392e-12,0.5571611091726126,1.281050436605234e-12,2.4161039584119155e-12,3.878661113559195e-12,-2.29391104999742e-12,8.105864084451402e-12,1.3856565871166325e-11,1.8656195794298333e-11,1.273050656947976e-11,-8.163102803817315e-13,-2.0791950761597725e-12,8.044615917303232e-12,6.826339368341711e-12,1.1479776690438898e-11,0.4428388904552921,1.2180109430744888e-11,2.8106746202666706e-12,6.430619724112182e-11,1.9495680418067023e-12,-4.956671422515749e-13,-5.689820060873145e-12,-1.0995504790987556e-12,5.319214494894414e-12,1.8229569483134535e-11,5.664702203618927e-13,1.056130463428544e-11,7.247687796047884e-12,1.2719661781534554e-11,1.0154727375097554e-12,1.0223984125278204e-11,1.8024740154759648e-12,,1.0
6,2016-09-30,1.7380080594961656e-11,1.3313161707768539e-12,9.029152604031359e-12,1.3573874240677142e-11,1.468123567907971e-11,-5.713726703050488e-13,2.908004953184987e-12,8.005127450342248e-12,-3.015523453665869e-12,1.0025899346482619e-11,2.517947645849983e-11,7.862534732198847e-12,-3.759442093101257e-12,4.578321026330856e-12,-5.340263496887202e-12,6.132943251344445e-12,7.137879088670606e-12,-6.067650833922067e-13,6.996064737954334e-13,2.6790636595062544e-11,7.82920988059749e-12,-1.1690266915463012e-12,6.113800859583778e-12,-1.3938062551476424e-12,1.2705297017769486e-12,4.712339905321184e-13,9.448382369163972e-12,-3.5462512048647514e-12,-1.8047761084283029e-12,5.73780478038749e-12,0.9999999997858239,5.136392094899827e-12,-2.5063636424737243e-12,-2.1215666909409477e-12,1.2680612366092257e-11,1.3187078946608969e-11,-5.401525581496761e-12,8.673739622838773e-12,4.299101344988392e-12,4.627144478831252e-12,-1.3989700046831853e-12,8.327975350808808e-12,-5.300948784861819e-13,-4.957589445317133e-13,8.119311186796789e-12,3.4747831217744236e-14,-3.4976739821742653e-12,,1.0
7,2016-12-30,3.8247590105812946e-12,3.1957464610830052e-12,-1.9331872493387117e-14,-1.965244358247435e-12,2.212917729611029e-12,-3.6125923195544057e-12,9.177376814884956e-12,3.36401448710436e-10,1.0266295382279459e-10,3.956739036905693e-12,9.146291001645736e-12,4.675255549206811e-13,-1.2131056774472106e-12,8.668099551745893e-11,1.173427715236221e-13,1.5283997677842583e-12,2.6726486981973634e-12,1.2719060374851421e-11,2.6642565097325747e-11,4.1163796518253035e-13,7.722231222340601e-12,4.485496380200882e-12,-1.956317857862606e-12,2.272047546609207e-12,-6.047731496380916e-13,7.244729729765333e-11,6.929665272375677e-11,6.36249569870597e-14,1.38347542991887e-12,9.079487673392876e-13,0.9056641684433264,-2.855591678847957e-12,1.6352610970330472e-12,1.959242145292508e-12,0.09433583056237675,-3.686995753119546e-12,-1.1172177867816523e-12,-2.7681425260201784e-12,-1.6188634211411225e-12,4.467147038903648e-11,-5.238364851823421e-12,4.466529398531376e-12,-2.343278021045704e-12,1.9814422026824705e-11,-2.6862120744749955e-13,-2.707084070694556e-12,1.932814592835562e-10,,1.0
8,2017-03-31,5.154843481401516e-12,1.4466618683910543e-13,6.565324105607803e-12,2.1822382922362456e-12,3.455315181141613e-12,6.716978185863161e-14,9.984664433385342e-13,-2.334483345519083e-13,1.0722695903653684e-12,3.1282222618429857e-13,2.8336661890180348e-14,1.2660598243653722e-12,-2.7182484055252366e-13,-7.522514990020582e-13,1.110484910959884e-12,9.652657692801912e-13,-4.990471186677538e-13,-5.12360481725263e-13,1.5875068139272641e-13,3.643446408810027e-12,8.259809496171634e-13,-1.8489089506930266e-13,3.167491804561116e-12,6.176141809750138e-13,1.5912560336404542e-12,1.4989856435773204e-12,-3.9373330865782403e-13,1.24776792038071e-13,4.850475079972125e-13,5.38547635594199e-13,-1.501669728411526e-13,2.418663496390169e-13,2.0776775310150295e-12,2.6128778513234375e-13,-1.9447704621370764e-14,1.581291837550912e-12,3.624692995455902e-12,4.233892067132108e-12,5.703229816815816e-13,1.0422658074879064e-12,-8.60199258662345e-13,9.582737607154898e-13,3.6212942890875578e-12,-2.9086445191755856e-14,1.4573297483509925e-12,0.9999999999483671,-1.6699655721660215e-13,,1.0
9,2017-06-30,1.1808387639877433e-13,8.584994634385676e-12,3.52454935678885e-12,4.114904956004112e-12,2.116084502260944e-12,9.630701110282645e-13,1.4654734877170027e-11,7.145806594720537e-12,9.37437961757467e-13,4.4621183158398177e-13,2.6086996947071397e-12,-1.3015183582156996e-12,1.010979746734525e-12,2.550448879498462e-11,3.6398882683056685e-12,2.4438953684496556e-11,-2.3588787884895227e-12,1.3744865267406771e-12,2.2481629892301287e-12,-4.1776982496288915e-13,5.095771196169299e-12,1.1937225575055841e-11,0.30861780482503104,3.010542369107551e-12,-1.569388169020969e-13,2.4292769348696046e-12,1.7123709120168627e-12,2.768474045364137e-13,2.2997050224630893e-13,6.254146118614807e-13,0.6913821949647528,1.3234661651906063e-11,9.184646873175316e-12,1.3332914261593456e-14,6.214302489974448e-13,6.361058191056977e-12,-4.744826462098179e-13,3.843043128462816e-12,1.153894551483321e-11,-1.3851593764716742e-12,-2.069651431889615e-12,-1.0844598166834103e-12,5.8207829028236515e-12,1.1210596098007055e-11,2.078191951468267e-12,2.6660295733056552e-11,1.328870326974893e-13,,1.0
10,2017-09-29,6.474216360969761e-13,0.7176079780732787,3.9497876940930813e-13,-1.0249611863089101e-14,-6.061937104158994e-14,7.667108244689989e-13,1.345785394826357e-13,9.545107663836146e-13,5.033048364125162e-14,6.009032608928065e-13,7.425503922563233e-13,8.012303982985908e-13,1.847177037780184e-13,-3.281759106982622e-13,1.212595569574648e-12,-1.0066377112491746e-13,-3.2848770495286997e-13,1.03688003141205e-12,1.6266224906007126e-12,2.4966563359800943e-12,-1.511669559263279e-13,6.524158738137553e-13,1.369130626016998e-12,-5.664237494322652e-15,3.4685392588038086e-13,1.052956883376253e-12,6.477585285655526e-13,4.576493081019585e-13,1.0126093463929773e-12,9.397851228437264e-14,0.2823920218969418,-5.219214447296576e-13,-1.1196717902442585e-13,6.395355387125379e-13,1.5883705632544273e-14,1.1180177449028137e-12,-4.737934820149863e-13,-7.561752181284959e-14,7.87861589659967e-13,1.553353408673867e-13,5.52321802843265e-13,4.037746895072156e-12,6.819087197875323e-13,4.948817466043291e-13,1.4689281397828523e-12,4.634184689317026e-12,7.2047931612833e-14,,1.0
11,2017-12-29,1.3352960210530873e-11,1.221363828016595e-11,4.367099145818685e-11,2.005590335456559e-10,-2.705849791812058e-12,-2.3112146328887396e-12,-1.0511198264344614e-12,2.496181322364112e-12,1.494322779897604e-10,1.480950076038232e-11,1.6575844407525774e-11,2.8443855960058082e-11,-4.7625668828057425e-12,3.377867022847738e-11,3.4923231582536215e-12,-6.6372279027062094e-12,4.877742289933874e-12,4.7867593928734434e-11,2.8643276230644888e-11,5.850506352338364e-12,7.49919166684396e-11,1.6057781034118447e-11,4.771586314977801e-12,1.005245418763827e-11,2.6867165201793825e-13,5.027382491033708e-10,-1.0418578043930107e-12,9.990133901361363e-13,7.21437728637144e-12,-4.91855692647884e-12,1.125377113157617e-11,-6.56677137012071e-12,-1.4446982780419911e-13,2.4896754423406377e-12,9.72787930022421e-12,9.480199117719627e-12,0.9999999986907263,-6.382661849776689e-12,1.3565392515532454e-12,4.047495566180649e-12,-5.470634747620777e-12,4.635109549649687e-11,-1.6295363462418663e-12,2.0571760316415155e-11,1.057057911965239e-11,-1.7579384611759758e-13,1.4063151532723937e-11,,1.0
12,2018-03-29,1.203100023146736e-12,1.0415783812670137e-12,0.3314630730085356,0.6685369267455457,8.896353788364359e-11,1.3119157539602664e-12,2.3622895448662127e-12,-4.830550692374427e-13,2.9312847740756054e-12,1.0584572275896288e-11,1.1905639674329384e-13,9.496621472239451e-12,-9.805916291307343e-13,9.78201430362598e-13,3.7244018608272567e-13,-1.6216900374681855e-13,5.195172939203683e-13,3.1208993022948795e-12,1.1906955129666018e-12,3.129261042761429e-12,6.503780675840192e-13,6.966386757037429e-12,1.0223802717729921e-11,-1.3360195401179585e-13,-1.4530516987790797e-13,1.492540957901118e-12,-3.617849493999493e-13,3.8413207631562564e-12,2.833726373809539e-12,1.2127154388030996e-12,2.549697815296173e-11,-1.4682190428756691e-12,7.481854254094542e-13,1.2616475578586928e-12,-5.66469981411015e-13,7.734771936641717e-12,6.580084275932687e-13,3.812778765888753e-12,5.855240934268616e-12,5.392011031873111e-13,3.751721255945506e-11,1.0859445147199543e-12,2.409842282256456e-12,8.188521726060736e-13,3.2695096830307978e-12,5.425867975404406e-12,-1.0222506751053555e-12,,1.0
13,2018-06-29,4.641766024571468e-13,6.921448403318447e-14,5.913449592305049e-13,1.7236665085152762e-12,4.4696893160411816e-14,1.4162465735400636e-14,1.1709833630240257e-13,8.515792479850703e-14,1.1855707413770002e-14,-3.7810510414026687e-14,-2.091990086757386e-14,1.0095329577508476e-13,2.01351764977095e-13,-1.5430333979479163e-14,1.1910764142354649e-12,3.1851937127936496e-13,7.853539901143804e-14,1.143733999554062e-13,1.0263989325591288e-13,1.4390410092817116e-13,1.74144309570849e-13,2.2011882335462496e-12,1.2114882833396296e-12,2.4691033796256514e-14,5.632580897068847e-13,5.746539863286983e-15,3.285180816470181e-14,4.539688964259191e-13,-3.1858267501066206e-15,5.719475454143089e-13,9.781579601064467e-14,1.497446506939944e-13,3.6742794129361316e-14,1.5852038457213635e-13,-1.5794874639828105e-14,6.606797990921092e-14,6.923128316294568e-15,1.1283304940771974e-13,9.532496125205367e-14,5.784167859707814e-14,0.9999999999858207,2.5190568078438624e-13,1.0079650968118033e-13,1.5079539988225625e-12,5.295551563838764e-13,2.0141820425618843e-13,2.694177363486004e-13,,1.0
14,2018-09-28,1.1828086524787494e-10,5.100718922339854e-13,1.2589094870711234e-11,4.080355328372175e-11,-2.9910161269671333e-12,-8.212878905280674e-12,6.9219919638475e-11,7.127561374887604e-12,1.207074688888293e-11,-1.4613808737584882e-12,-1.0192144905264984e-12,2.1042876922336218e-11,1.1573389291060518e-10,4.1002446147188315e-11,-3.4501766471700017e-12,8.330706411700857e-12,-1.108378068985509e-11,1.5698642521200994e-12,5.117039760123097e-13,2.1428667075232187e-11,-7.948931089443398e-13,1.4951954134782584e-11,6.220543838618804e-11,2.3306638275739096e-11,0.9999999988860448,2.881764501242537e-12,7.342775987721858e-12,2.13529949777332e-11,1.0846650192737031e-11,3.9157393411525707e-11,5.263685445849713e-11,-9.57233177451678e-12,4.027409067463495e-11,1.3276632062454066e-10,9.774437937355903e-12,-3.925968429234609e-12,1.6473835549970798e-10,-1.065740217927269e-11,4.3411660924709514e-11,3.7135219993441234e-11,-6.121797595583191e-12,-3.0896330405332133e-12,-1.2227381130788473e-12,8.7540004998629e-12,2.0540870683993554e-11,1.977085275043046e-11,-4.4866168521201115e-12,,1.0
15,2018-12-31,-1.5619240026858255e-12,1.5402487102309664e-11,1.4364696514903016e-12,-6.61996046243732e-13,3.0726431011104535e-12,-4.1622732825503513e-13,5.359103136881333e-13,-1.0339586309068212e-12,2.9288057537799713e-12,8.69025381623022e-12,-1.058341699930657e-12,4.024865902126788e-12,1.5789100708625981e-12,3.2490011873646137e-12,1.9452457137373705e-11,2.9546756112734442e-12,1.9806517020768722e-12,2.3279787059854523e-12,4.4319484603716476e-12,4.2765536939837997e-13,3.3904040839930298e-12,2.603717184740917e-12,1.3656788595443846e-12,7.723790810241056e-12,0.0707160910414938,1.4201071749232987e-12,4.047311698876559e-12,1.8031397538595355e-10,2.900487961128358e-12,0.9292839085228828,-3.6195409745392417e-12,7.66539007611817e-12,3.516747635429119e-12,1.8458716796998904e-11,8.310576199536974e-13,-2.2080239747013567e-12,3.079061818869458e-12,-1.0276893607361416e-12,5.89874602163377e-12,5.170864225002952e-12,9.256715748140148e-11,3.932568164426431e-12,1.2276281045415139e-11,7.795316746904463e-12,3.541681732671567e-12,2.2734709082150256e-12,3.944477622331866e-12,,1.0
16,2019-03-29,5.509500778901851e-13,-5.942225092605356e-13,4.3761028800168383e-13,3.8579990853746896e-13,-2.9571210462951826e-13,1.2755446849391687e-12,5.201997059468973e-13,5.882638303482022e-13,-2.5699441627779352e-14,-1.7745931564340582e-13,-6.857888396366092e-14,1.0389073173824557e-12,-7.111575054242099e-13,-2.0895840112337293e-13,1.7942627263003212e-13,-1.1827168109528488e-13,-3.967639610259711e-13,-6.766046560724392e-14,3.1032596582192113e-13,-4.33933045933704e-13,1.358955329932465e-13,2.3209855595808425e-12,4.76400130029722e-13,2.4249894367492315e-14,2.0169244032902453e-13,2.6644656913773786e-13,-1.8877058753498645e-13,5.062304295444165e-14,-4.251534313485167e-13,5.71510778727922e-14,1.901951296721772e-12,-7.586731570517638e-13,5.475684703090316e-13,-3.4454995246701574e-13,1.7450239769568455e-13,1.723427491002898e-12,-5.179108981922971e-13,0.9999999999915596,8.286148825549793e-13,4.9547032655770086e-14,-4.666159940414756e-13,1.3653596272819288e-13,1.4608795159421048e-13,-3.2911538988224616e-13,4.804066604593023e-13,9.503219698034064e-14,-1.1035550277848483e-13,,1.0
17,2019-06-28,8.874489365536429e-12,-4.020339967571136e-12,2.5233890471825217e-11,1.3515672368292602e-11,1.5040951854954333e-11,1.5681720042942205e-11,0.9999999993132347,3.9451062888393234e-11,3.582447789683254e-11,3.8819170603180866e-12,1.0208483226985298e-11,4.903693150998656e-12,5.500367255708335e-12,2.8581813691864604e-11,-3.892104091113932e-12,3.421592652396432e-11,2.9256385086518593e-12,1.2423978127374852e-11,9.579397715844226e-11,1.6936955088900046e-11,2.4590591898805152e-11,3.912145352470242e-12,-3.78613017082699e-12,4.294913406903897e-12,-6.755795183159083e-12,3.666530864671728e-11,9.588137242783389e-11,9.174457658504766e-12,2.426600231403609e-11,6.309874293787754e-12,-4.3588543715486174e-12,4.717430368596001e-12,1.3995561730733352e-11,9.351316992435853e-12,2.5689856125911218e-11,-1.0772083235703737e-11,-5.851527939773703e-12,-8.162588455570319e-12,1.6621008888315095e-11,1.5185121498732083e-11,-5.503597935847194e-12,2.1103621167825928e-11,1.995153224596205e-11,2.545213196212785e-12,3.2117313768239064e-11,2.322381640183515e-12,2.2592907309540866e-12,,1.0
18,2019-09-30,3.4899733350077206e-11,9.693974051347249e-12,4.156398199767862e-13,-3.918706128956122e-13,8.536286735291156e-12,1.3468777407333026e-11,2.0750232672623816e-11,3.0633363959224254e-12,6.14270418206046e-12,8.585152765446245e-14,5.4932643780935425e-12,-7.838148482167262e-13,1.7439763199701834e-10,5.3564724507319756e-12,1.4811673483942693e-12,5.28470615929579e-12,0.45023565754867534,1.935849272380669e-12,1.3127624164313862e-12,-3.22396948611544e-13,3.484425228259825e-13,6.1261040181788455e-12,5.987776636611333e-12,2.8243627175962777e-13,4.801923799309639e-12,-1.299096443085877e-12,1.1225168675589358e-12,5.2177031425263905e-12,1.554080950998121e-11,4.5909788224155865e-12,9.563465419475057e-12,0.5497643420441463,1.8843004698132405e-12,-2.791134506444252e-12,-1.221272270098907e-12,-3.120776347810146e-13,6.011782837085792e-12,-3.680051623507022e-12,3.5327086308757303e-12,1.1489644311793397e-11,-2.931570097384468e-12,3.504109015543115e-11,2.630425932022872e-12,-9.871229689604618e-13,3.5129236419694148e-12,-7.586793087995038e-15,1.2015490051759509e-11,,1.0
19,2019-12-31,4.2158170250188663e-11,9.966854051873649e-12,1.1630558455200874e-11,1.1859750773817633e-12,1.1082384718159624e-12,-5.142192985945248e-12,7.786910481408867e-12,7.40894066974262e-12,8.694365121958565e-12,5.7420448270440065e-12,3.00803962591471e-12,-2.4593063587062503e-12,1.0491783688653266e-11,-7.784804475183008e-13,0.9999999996200857,-4.393080707949579e-12,-7.125402566263524e-13,1.5289257930813623e-11,1.1694333747494756e-11,3.0060480216225793e-12,3.1941052131222366e-12,-2.007204943156208e-12,2.8576864167057744e-12,5.650312477611947e-12,1.0058350614056952e-11,1.509436634216887e-11,2.2757092694868842e-12,3.570267334284022e-12,-2.5775220817047913e-12,2.8088137086797376e-12,7.219899303402063e-11,-3.270833381135921e-13,-2.7134219293367358e-12,3.490539961319559e-12,3.1547179675922965e-13,9.73316719764856e-12,-1.475774132261765e-12,6.5337050985489035e-12,4.276991993485281e-12,-1.6279505065549712e-12,-3.433576356432101e-12,-1.6735648561538731e-12,-2.3247881991425174e-12,9.137367735628135e-11,2.8873591533548917e-12,3.442198617559428e-11,1.6626300653258455e-12,,1.0
20,2020-03-31,5.75951635269208e-12,8.057197983896141e-12,1.2584704820386845e-11,0.48935789214806164,8.895783718841216e-13,-3.793722603868519e-13,3.4009293864520573e-12,-7.876774501447335e-13,4.0059704135475146e-13,2.2185707669184543e-11,-1.4514961015128572e-13,4.156218413779278e-12,3.928072068945415e-12,-8.010611852256202e-13,1.1554282603805899e-12,-5.974658990889334e-13,3.818853538156099e-12,-2.751481401849507e-13,6.241761617715357e-13,5.6333533193846435e-12,3.015997122860609e-13,6.225021580782586e-12,4.989445907769884e-12,1.1463531974071678e-11,0.004956380560368976,-5.58812990691822e-13,-1.4658267163562794e-13,5.637530811399151e-12,3.1435458408059132e-12,7.256354575499209e-12,1.6514287722898147e-10,1.2594851933102616e-12,8.74421140063163e-12,6.263705280886667e-12,-5.818146524348408e-13,-1.7173154414328684e-12,2.8396723749849596e-11,1.9129906150864272e-12,8.521823076249348e-12,9.744522072573995e-10,-4.6053344587210136e-14,2.896419106471158e-12,9.849520801131365e-12,4.992225847355925e-12,5.938920263078472e-12,0.5056857259682664,-6.382138817276732e-13,,1.0
21,2020-06-30,0.8507221170482304,4.537262981008902e-11,6.68164045548235e-11,0.10399770239498494,9.443813316644038e-12,7.0496298072618376e-12,1.7046609941044317e-11,1.2231092158323606e-11,2.3985134417451687e-11,5.489715430518421e-13,2.999190983964949e-11,1.2374043276455568e-11,5.9985158093799395e-12,-3.1899443439676693e-13,2.2545581285063626e-11,0.03980518662090494,-1.7566511153411881e-12,1.368483698314286e-12,3.109126141153253e-12,3.4909523162580755e-13,1.5773065056493268e-12,2.4880719221932598e-11,6.985434967180094e-12,4.580667935273584e-12,1.3304479379191633e-11,4.711761640763426e-12,1.1998721636258707e-11,3.4311648126245724e-11,5.616270441787077e-13,1.3230921567636592e-12,4.4750878612089875e-10,1.4884985207421736e-11,8.903716339151986e-12,1.5221158158785822e-12,9.25917386959594e-12,1.3891737440204506e-11,0.0054749929592037925,5.68215990840132e-12,2.731906899496341e-11,2.0290328501860708e-11,3.2475976199634336e-12,2.3451909090654265e-11,5.5533058766346615e-12,1.0102875077992921e-11,1.0950106557969955e-11,1.5559624444638584e-11,-1.8598463934183326e-12,,1.0
22,2020-09-30,3.575319976039411e-11,-2.6050562497333183e-12,8.374215014488921e-12,1.0654502428392942e-11,5.0198117333963796e-12,5.525883417504061e-12,-2.0738388545217333e-12,-4.1807194283809025e-12,5.313785910303206e-12,-3.6484608044320015e-12,-1.0366278746277305e-12,-4.2568169954575146e-12,-2.527703050577891e-12,5.5313857319895755e-12,0.7373570651042994,7.624215101231398e-12,-1.9869342977248918e-12,3.179805284167264e-12,1.259415246179169e-11,6.575113366878097e-12,1.5732807751706274e-11,7.039579344352111e-12,2.3936099728380467e-11,4.8554658836769976e-12,-2.4631962530511927e-12,4.314150244569802e-12,1.4133914165110415e-12,5.580117339462489e-12,3.697408201731309e-12,6.00065999127617e-12,0.2626429346228019,6.134265850523757e-12,6.48499223106824e-12,1.0943269450449324e-11,2.8258653431942638e-12,2.6607703517425437e-11,-4.862834084914783e-12,1.8221615721196143e-11,2.2834023622117656e-11,6.119776609076177e-12,1.7637478836715694e-12,8.716551284818224e-12,1.1009713399646195e-11,4.056051749308058e-12,2.240719199022067e-12,-1.8636881148700096e-12,-2.2760267752179065e-12,,1.0
23,2020-12-31,3.5613408838039553e-13,1.2054075351586332e-12,-1.5132280227806748e-13,-1.126592150736718e-13,1.4401939329222082e-12,1.4009742164493428e-12,1.1918809188100028e-12,6.179809229960437e-12,8.716206982679621e-13,4.213845470832798e-13,1.6656944666200969e-12,3.4189644426352407e-13,5.364650739471522e-13,1.413951507887551e-12,0.9999999999453981,4.80144380884052e-12,-1.7053352440878008e-13,2.9896799383402655e-12,1.5603252988640544e-12,1.7741339846049895e-12,8.766591529190056e-13,5.013676877105766e-13,3.5916789345526694e-13,-4.113181463619021e-14,4.0613893828759647e-13,4.337667582343396e-12,1.1370736892386648e-12,-2.6565606246238777e-13,-1.2013707221761823e-13,-2.5462362172237897e-13,-3.3314942554930687e-13,1.1217486313341605e-12,6.520507616137182e-14,-8.820223285016362e-15,7.691840057554432e-13,1.1788359680694846e-11,-3.646954324958535e-13,-3.2752977709010763e-14,1.7213381613789212e-15,6.870497272519902e-13,5.028270209866184e-12,4.2275775141388706e-13,-2.886859217227855e-13,3.0158472860748663e-13,4.356842414757778e-14,-5.926345127430327e-13,1.3566918761542007e-12,,1.0
24,2021-03-31,-3.019716128400163e-13,2.468660161954278e-13,-1.781127281028969e-13,-1.2065785797844457e-13,-3.5342799957554485e-14,-4.535643796767228e-13,1.4762808045035086e-12,1.3893366379646993e-12,-3.877465917219621e-14,1.2220407290982972e-12,-6.651008327507262e-13,1.7357502403732636e-12,9.923147449574972e-13,1.1337676535137627e-12,1.8100949664609861e-12,2.2558558648072443e-12,1.344364311619519e-12,3.2202110904109213e-13,3.1620774861802827e-13,3.875489555671162e-12,2.2410027236118036e-13,3.108029989684508e-15,-4.193219677781776e-13,5.76594933016423e-13,1.1538442851524987e-12,4.803237164889233e-13,3.934532707772547e-12,-1.7942345016631662e-13,7.788119320103286e-13,-5.6598334398569464e-14,4.998024200889186e-14,3.348909459603778e-12,8.699206198902426e-13,2.435341055951195e-13,1.3004251351436688e-12,5.069645047999013e-13,1.3474584423248796e-11,1.2217508340898484e-12,1.0314561904948105e-13,-1.510987830780321e-13,0.999999999951204,1.034606741168692e-12,-6.56234541524713e-14,6.380223569707547e-13,-8.14044793374664e-14,-3.371592157963143e-13,3.844559086753813e-12,,1.0
25,2021-06-30,8.089851409955299e-13,3.804299329847573e-13,2.058135077403513e-12,7.275447229704514e-13,-2.7033283878637353e-13,1.3197676810258502e-12,5.60131128918254e-12,-6.034160767892917e-14,7.970717365137709e-13,-3.1208312098423917e-13,2.513442734244562e-14,2.1624553667728354e-13,9.690506820163624e-13,-4.3449306562071955e-13,-3.260702285750735e-13,-2.1094134390539765e-13,1.304869193971835e-12,-2.6695322445346867e-13,1.5836394363159528e-14,-1.863079814896773e-13,-1.3816303433837396e-13,3.2499714908512703e-12,2.4378125981947445e-12,1.1324496484804049e-13,2.7900151668313187e-12,-3.3707473847564636e-13,1.0491082118225089e-14,2.0731006471064458e-14,2.8656664337077186e-13,4.852916126631258e-13,0.9999999999724879,2.507297512152059e-13,8.247344857266967e-13,6.802706480983136e-13,1.1568407450974344e-12,1.4663125480831e-13,-2.866982549822657e-13,-4.375030099493635e-13,7.075139729460565e-13,1.1818565209418055e-12,-8.800514350878272e-13,1.0959983669660752e-13,3.897822592245581e-13,5.860693492839997e-13,7.244260248315894e-13,-2.5462980939319544e-13,1.561004993033293e-12,,1.0
26,2021-09-30,4.051558642930816e-13,1.1480175429342273e-13,1.2982119043161157e-13,5.5126120402454246e-14,1.0410197136288263e-12,-1.9191304778925188e-13,0.9999999999796092,2.0435838425362074e-13,7.477901661150353e-13,1.2020636286933235e-13,1.797532150397159e-14,4.3114393776388704e-13,3.6516553826351143e-13,1.6915681583848327e-13,6.060245068450566e-13,2.4330511943595417e-13,1.5890271035169094e-13,1.932627736734069e-13,1.15777703344282e-12,-1.7709941297180036e-14,8.345867029720004e-14,1.284957824238764e-12,9.229245514759e-13,1.8687222433301092e-13,3.205879760601593e-13,9.808242921213405e-13,4.347444778482167e-13,-5.993152231112228e-15,2.6129685679040184e-13,1.5667717816623115e-13,3.841306441046784e-13,-1.7123399894670737e-13,2.7714072970771963e-12,2.0613644222998383e-12,4.233888638229325e-13,4.6597071295257335e-14,2.3743566624508482e-14,-9.551770025290151e-14,3.748613094359829e-12,-7.716939613611646e-14,-1.4316973989962128e-13,2.6516377117692056e-13,4.064738796874578e-14,1.3687361258088966e-13,6.725040228224694e-14,-4.947579937604864e-14,3.8205942165111124e-13,,1.0
27,2021-12-31,1.322286828694707e-11,1.7643625520606878e-11,-4.440857820154097e-13,1.1507694880602422e-13,1.2317237877255297e-13,1.67737726545592e-12,2.522653998547897e-12,-1.7539857572302331e-12,1.1010138274823527e-11,-5.304152733308533e-13,-3.7415272268908485e-13,5.564806838036932e-12,9.890559298478297e-12,-1.2473055713929385e-12,-6.271830042878797e-13,2.3674487271414265e-12,-1.7905957515099754e-12,1.282127511660485e-11,6.460663576813985e-12,0.2787015198341312,2.2820358980241617e-13,6.156777275654113e-12,1.6752633679425606e-12,1.4427781712921312e-12,6.679475308169653e-12,3.00326176055762e-12,3.7840560051494223e-13,8.421914967895974e-12,6.393660157507219e-13,7.064861903813104e-13,0.302402892288336,-1.2773209436544878e-13,-2.4768601340215448e-14,0.41889558771657565,8.03456736369265e-13,7.267999181168689e-13,2.3454695371412897e-11,-2.3552389561459655e-12,5.174798519792577e-12,-1.3264282091721316e-12,-2.3042211071592432e-12,-4.1786324276363014e-13,7.145874253316764e-14,2.239522087040037e-11,-5.191417430269268e-13,8.775124172201058e-12,6.669467299061395e-13,,1.0
28,2022-03-31,1.6624710720946532e-12,0.9999999997448893,-6.395941117691968e-13,1.845550239053645e-12,2.1773611460167123e-12,1.8490377280483046e-12,2.565651987271632e-12,-5.558577660559726e-14,4.6814247455408e-13,7.026137855330003e-12,-4.638645885027571e-13,-2.363955663854811e-13,7.590132534870304e-13,3.74439682410719e-12,5.066056878182379e-11,1.0206415149991553e-11,4.902589894655287e-13,2.8548832598796234e-12,1.7964609457788648e-12,1.4865645479315792e-12,7.68271892899097e-12,-9.210545423307647e-13,-5.357567632740456e-13,2.490296945056835e-12,2.943901788571794e-12,6.6381894694933045e-12,1.960209906589126e-11,1.8848939652064396e-12,6.644519455420939e-11,5.752458281698966e-12,9.679758488827713e-13,1.727124706517917e-12,7.963421467263588e-13,-4.831159106312426e-13,1.1668661034706322e-11,-8.314032316733715e-13,4.733246353714495e-12,2.0335956570447253e-12,-3.0695160950711326e-13,8.560198230822194e-12,3.50582176521902e-12,1.5704942607649729e-12,-3.9848469898127444e-13,1.7449998981786382e-12,3.0698933243173113e-12,1.3699247446236128e-11,2.87656033203218e-12,,1.0
29,2022-06-30,2.6195527833341804e-12,3.739896450462665e-11,4.9097006993828425e-12,-6.035919567250894e-12,-2.917799942040715e-13,2.1717383398684937e-11,-1.8165080030356532e-12,1.4518883333227821e-11,4.14056344344984e-12,4.823702210817106e-11,-8.696331119595998e-13,2.2468255723388783e-12,2.5606517877317185e-11,-1.4784395555199362e-12,-2.2529043460982765e-13,-1.1761662839436836e-11,0.4421268829170368,2.1196796283632965e-12,-8.284685346049691e-13,2.034989911306847e-11,3.121270512924715e-12,3.4542187540719192e-12,-5.226691548782036e-12,7.278186391633476e-11,0.31724802212247455,2.411058817825213e-12,1.936132324802599e-11,9.805197095636155e-12,1.598132604784062e-11,0.0141564540827378,-9.73586221140724e-12,1.732649781280607e-11,1.0052885253818812e-11,7.443536843765395e-11,6.635832446266026e-12,-8.985166595358096e-13,4.010810251803506e-12,0.22646864002919717,2.3089983946670795e-11,1.050955770792817e-10,-5.84468944987667e-12,9.8336325642157e-12,7.768670680865261e-11,6.479908218484394e-11,1.57345527038108e-11,1.6795171272283677e-10,6.144051197963615e-12,,1.0
30,2022-09-29,9.532588753521222e-12,2.7601006523003044e-12,-1.3352811479561367e-12,1.3691249128089587e-11,1.6586513559841874e-12,-2.0425851594071274e-13,1.3105142303017536e-12,1.4413930766290376e-12,3.6579465122960654e-12,-1.7602286392528205e-13,-1.9495393728940424e-12,3.1314794273335165e-12,1.3372177725728257e-11,2.677439627136545e-12,3.033252671222493e-11,2.1480604682485885e-12,-6.568604428658875e-13,1.868364514547464e-11,1.5563909115955e-11,-1.1978996863442108e-12,7.635541410495174e-13,6.5175688405521856e-12,1.7593965271475739e-12,2.7449654160860327e-12,1.0776943787819624e-11,6.244875633225229e-12,3.769836064571491e-12,8.980896167109659e-13,-2.9749855584902167e-15,3.72705764764774e-12,-9.762159889218217e-13,-1.4991789513770436e-12,5.638113389568614e-13,1.3861164608750128e-13,1.0829725646766976e-12,-9.846216943557608e-13,0.10526108120268544,3.6933247771677954e-12,2.9710393327631614e-12,5.139935028241012e-12,0.8947389185966302,9.060401274862317e-12,5.453904859310108e-12,5.7089141945439584e-12,1.530759646748141e-12,9.084117627812198e-12,8.055387411776083e-12,,1.0
